Language model created by QuickLM on Sun Aug 15 07:33:37 EDT 2021
Copyright (c) 1996-2010 Carnegie Mellon University and Alexander I. Rudnicky

The model is in standard ARPA format, designed by Doug Paul while he was at MITRE.

The code that was used to produce this language model is available in Open Source.
Please visit http://www.speech.cs.cmu.edu/tools/ for more information

The (fixed) discount mass is 0.5. The backoffs are computed using the ratio method.
This model based on a corpus of 2 sentences and 5 words

\data\
ngram 1=5
ngram 2=5
ngram 3=4

\1-grams:
-0.9031 </s> -0.3010
-0.9031 <s> -0.2430
-1.2041 CLOSE -0.2430
-0.9031 EDGE -0.2430
-1.2041 OPEN -0.2430

\2-grams:
-0.6021 <s> CLOSE 0.0000
-0.6021 <s> OPEN 0.0000
-0.3010 CLOSE EDGE 0.0000
-0.3010 EDGE </s> -0.3010
-0.3010 OPEN EDGE 0.0000

\3-grams:
-0.3010 <s> CLOSE EDGE
-0.3010 <s> OPEN EDGE
-0.3010 CLOSE EDGE </s>
-0.3010 OPEN EDGE </s>

\end\